digraph Tree {
node [shape=box] ;
0 [label="X[0] <= 39.5\nentropy = 0.782\nsamples = 181\nvalue = [139, 42]"] ;
1 [label="X[1] <= 20.5\nentropy = 0.371\nsamples = 140\nvalue = [130, 10]"] ;
0 -> 1 [labeldistance=2.5, labelangle=45, headlabel="True"] ;
2 [label="X[3] <= 2.838\nentropy = 0.23\nsamples = 134\nvalue = [129, 5]"] ;
1 -> 2 ;
3 [label="X[11] <= 0.065\nentropy = 0.121\nsamples = 121\nvalue = [119, 2]"] ;
2 -> 3 ;
4 [label="entropy = 0.0\nsamples = 1\nvalue = [0, 1]"] ;
3 -> 4 ;
5 [label="X[16] <= 60.935\nentropy = 0.07\nsamples = 120\nvalue = [119, 1]"] ;
3 -> 5 ;
6 [label="entropy = 0.0\nsamples = 116\nvalue = [116, 0]"] ;
5 -> 6 ;
7 [label="X[6] <= 1.042\nentropy = 0.811\nsamples = 4\nvalue = [3, 1]"] ;
5 -> 7 ;
8 [label="entropy = 0.0\nsamples = 1\nvalue = [0, 1]"] ;
7 -> 8 ;
9 [label="entropy = 0.0\nsamples = 3\nvalue = [3, 0]"] ;
7 -> 9 ;
10 [label="X[0] <= 29.5\nentropy = 0.779\nsamples = 13\nvalue = [10, 3]"] ;
2 -> 10 ;
11 [label="X[1] <= 12.5\nentropy = 1.0\nsamples = 6\nvalue = [3, 3]"] ;
10 -> 11 ;
12 [label="entropy = 0.0\nsamples = 3\nvalue = [3, 0]"] ;
11 -> 12 ;
13 [label="entropy = 0.0\nsamples = 3\nvalue = [0, 3]"] ;
11 -> 13 ;
14 [label="entropy = 0.0\nsamples = 7\nvalue = [7, 0]"] ;
10 -> 14 ;
15 [label="X[9] <= 0.63\nentropy = 0.65\nsamples = 6\nvalue = [1, 5]"] ;
1 -> 15 ;
16 [label="entropy = 0.0\nsamples = 5\nvalue = [0, 5]"] ;
15 -> 16 ;
17 [label="entropy = 0.0\nsamples = 1\nvalue = [1, 0]"] ;
15 -> 17 ;
18 [label="X[10] <= 0.28\nentropy = 0.759\nsamples = 41\nvalue = [9, 32]"] ;
0 -> 18 [labeldistance=2.5, labelangle=-45, headlabel="False"] ;
19 [label="X[3] <= 1166.044\nentropy = 0.211\nsamples = 30\nvalue = [1, 29]"] ;
18 -> 19 ;
20 [label="entropy = 0.0\nsamples = 29\nvalue = [0, 29]"] ;
19 -> 20 ;
21 [label="entropy = 0.0\nsamples = 1\nvalue = [1, 0]"] ;
19 -> 21 ;
22 [label="X[0] <= 47.0\nentropy = 0.845\nsamples = 11\nvalue = [8, 3]"] ;
18 -> 22 ;
23 [label="entropy = 0.0\nsamples = 7\nvalue = [7, 0]"] ;
22 -> 23 ;
24 [label="X[10] <= 88.52\nentropy = 0.811\nsamples = 4\nvalue = [1, 3]"] ;
22 -> 24 ;
25 [label="entropy = 0.0\nsamples = 3\nvalue = [0, 3]"] ;
24 -> 25 ;
26 [label="entropy = 0.0\nsamples = 1\nvalue = [1, 0]"] ;
24 -> 26 ;
}