digraph Tree {
node [shape=box] ;
0 [label="X[0] <= 23.0\nentropy = 0.782\nsamples = 181\nvalue = [139, 42]"] ;
1 [label="X[7] <= 85.236\nentropy = 0.592\nsamples = 161\nvalue = [138, 23]"] ;
0 -> 1 [labeldistance=2.5, labelangle=45, headlabel="True"] ;
2 [label="X[0] <= 13.5\nentropy = 0.275\nsamples = 127\nvalue = [121, 6]"] ;
1 -> 2 ;
3 [label="X[4] <= 0.198\nentropy = 0.076\nsamples = 107\nvalue = [106, 1]"] ;
2 -> 3 ;
4 [label="X[6] <= 45.134\nentropy = 0.592\nsamples = 7\nvalue = [6, 1]"] ;
3 -> 4 ;
5 [label="entropy = 0.0\nsamples = 6\nvalue = [6, 0]"] ;
4 -> 5 ;
6 [label="entropy = 0.0\nsamples = 1\nvalue = [0, 1]"] ;
4 -> 6 ;
7 [label="entropy = 0.0\nsamples = 100\nvalue = [100, 0]"] ;
3 -> 7 ;
8 [label="X[4] <= 2.054\nentropy = 0.811\nsamples = 20\nvalue = [15, 5]"] ;
2 -> 8 ;
9 [label="X[7] <= 63.604\nentropy = 0.523\nsamples = 17\nvalue = [15, 2]"] ;
8 -> 9 ;
10 [label="entropy = 0.0\nsamples = 1\nvalue = [0, 1]"] ;
9 -> 10 ;
11 [label="X[1] <= 3.405\nentropy = 0.337\nsamples = 16\nvalue = [15, 1]"] ;
9 -> 11 ;
12 [label="entropy = 0.0\nsamples = 14\nvalue = [14, 0]"] ;
11 -> 12 ;
13 [label="X[3] <= 0.436\nentropy = 1.0\nsamples = 2\nvalue = [1, 1]"] ;
11 -> 13 ;
14 [label="entropy = 0.0\nsamples = 1\nvalue = [1, 0]"] ;
13 -> 14 ;
15 [label="entropy = 0.0\nsamples = 1\nvalue = [0, 1]"] ;
13 -> 15 ;
16 [label="entropy = 0.0\nsamples = 3\nvalue = [0, 3]"] ;
8 -> 16 ;
17 [label="X[6] <= 49.546\nentropy = 1.0\nsamples = 34\nvalue = [17, 17]"] ;
1 -> 17 ;
18 [label="X[0] <= 13.5\nentropy = 0.391\nsamples = 13\nvalue = [12, 1]"] ;
17 -> 18 ;
19 [label="entropy = 0.0\nsamples = 12\nvalue = [12, 0]"] ;
18 -> 19 ;
20 [label="entropy = 0.0\nsamples = 1\nvalue = [0, 1]"] ;
18 -> 20 ;
21 [label="X[4] <= 589.695\nentropy = 0.792\nsamples = 21\nvalue = [5, 16]"] ;
17 -> 21 ;
22 [label="X[8] <= 1.709\nentropy = 0.629\nsamples = 19\nvalue = [3, 16]"] ;
21 -> 22 ;
23 [label="entropy = 0.0\nsamples = 1\nvalue = [1, 0]"] ;
22 -> 23 ;
24 [label="X[0] <= 3.5\nentropy = 0.503\nsamples = 18\nvalue = [2, 16]"] ;
22 -> 24 ;
25 [label="X[4] <= 1.055\nentropy = 0.971\nsamples = 5\nvalue = [2, 3]"] ;
24 -> 25 ;
26 [label="entropy = 0.0\nsamples = 3\nvalue = [0, 3]"] ;
25 -> 26 ;
27 [label="entropy = 0.0\nsamples = 2\nvalue = [2, 0]"] ;
25 -> 27 ;
28 [label="entropy = 0.0\nsamples = 13\nvalue = [0, 13]"] ;
24 -> 28 ;
29 [label="entropy = 0.0\nsamples = 2\nvalue = [2, 0]"] ;
21 -> 29 ;
30 [label="X[7] <= 69.447\nentropy = 0.286\nsamples = 20\nvalue = [1, 19]"] ;
0 -> 30 [labeldistance=2.5, labelangle=-45, headlabel="False"] ;
31 [label="X[7] <= 33.59\nentropy = 1.0\nsamples = 2\nvalue = [1, 1]"] ;
30 -> 31 ;
32 [label="entropy = 0.0\nsamples = 1\nvalue = [0, 1]"] ;
31 -> 32 ;
33 [label="entropy = 0.0\nsamples = 1\nvalue = [1, 0]"] ;
31 -> 33 ;
34 [label="entropy = 0.0\nsamples = 18\nvalue = [0, 18]"] ;
30 -> 34 ;
}