digraph Tree {
node [shape=box] ;
0 [label="X[0] <= 0.697\nentropy = 0.782\nsamples = 181\nvalue = [139, 42]"] ;
1 [label="X[1] <= 0.822\nentropy = 0.371\nsamples = 140\nvalue = [130, 10]"] ;
0 -> 1 [labeldistance=2.5, labelangle=45, headlabel="True"] ;
2 [label="X[1] <= 0.276\nentropy = 0.23\nsamples = 134\nvalue = [129, 5]"] ;
1 -> 2 ;
3 [label="X[5] <= 2.078\nentropy = 0.125\nsamples = 117\nvalue = [115, 2]"] ;
2 -> 3 ;
4 [label="X[4] <= -0.032\nentropy = 0.072\nsamples = 115\nvalue = [114, 1]"] ;
3 -> 4 ;
5 [label="entropy = 0.0\nsamples = 105\nvalue = [105, 0]"] ;
4 -> 5 ;
6 [label="X[4] <= -0.031\nentropy = 0.469\nsamples = 10\nvalue = [9, 1]"] ;
4 -> 6 ;
7 [label="entropy = 0.0\nsamples = 1\nvalue = [0, 1]"] ;
6 -> 7 ;
8 [label="entropy = 0.0\nsamples = 9\nvalue = [9, 0]"] ;
6 -> 8 ;
9 [label="X[0] <= -0.567\nentropy = 1.0\nsamples = 2\nvalue = [1, 1]"] ;
3 -> 9 ;
10 [label="entropy = 0.0\nsamples = 1\nvalue = [1, 0]"] ;
9 -> 10 ;
11 [label="entropy = 0.0\nsamples = 1\nvalue = [0, 1]"] ;
9 -> 11 ;
12 [label="X[0] <= -0.172\nentropy = 0.672\nsamples = 17\nvalue = [14, 3]"] ;
2 -> 12 ;
13 [label="X[5] <= -0.434\nentropy = 1.0\nsamples = 6\nvalue = [3, 3]"] ;
12 -> 13 ;
14 [label="entropy = 0.0\nsamples = 2\nvalue = [2, 0]"] ;
13 -> 14 ;
15 [label="X[4] <= -0.102\nentropy = 0.811\nsamples = 4\nvalue = [1, 3]"] ;
13 -> 15 ;
16 [label="entropy = 0.0\nsamples = 3\nvalue = [0, 3]"] ;
15 -> 16 ;
17 [label="entropy = 0.0\nsamples = 1\nvalue = [1, 0]"] ;
15 -> 17 ;
18 [label="entropy = 0.0\nsamples = 11\nvalue = [11, 0]"] ;
12 -> 18 ;
19 [label="X[5] <= -0.43\nentropy = 0.65\nsamples = 6\nvalue = [1, 5]"] ;
1 -> 19 ;
20 [label="X[1] <= 1.718\nentropy = 1.0\nsamples = 2\nvalue = [1, 1]"] ;
19 -> 20 ;
21 [label="entropy = 0.0\nsamples = 1\nvalue = [1, 0]"] ;
20 -> 21 ;
22 [label="entropy = 0.0\nsamples = 1\nvalue = [0, 1]"] ;
20 -> 22 ;
23 [label="entropy = 0.0\nsamples = 4\nvalue = [0, 4]"] ;
19 -> 23 ;
24 [label="X[0] <= 1.407\nentropy = 0.759\nsamples = 41\nvalue = [9, 32]"] ;
0 -> 24 [labeldistance=2.5, labelangle=-45, headlabel="False"] ;
25 [label="X[5] <= -0.337\nentropy = 0.976\nsamples = 22\nvalue = [9, 13]"] ;
24 -> 25 ;
26 [label="entropy = 0.0\nsamples = 6\nvalue = [6, 0]"] ;
25 -> 26 ;
27 [label="X[1] <= -0.036\nentropy = 0.696\nsamples = 16\nvalue = [3, 13]"] ;
25 -> 27 ;
28 [label="X[0] <= 0.894\nentropy = 1.0\nsamples = 6\nvalue = [3, 3]"] ;
27 -> 28 ;
29 [label="entropy = 0.0\nsamples = 2\nvalue = [2, 0]"] ;
28 -> 29 ;
30 [label="X[3] <= -0.553\nentropy = 0.811\nsamples = 4\nvalue = [1, 3]"] ;
28 -> 30 ;
31 [label="entropy = 0.0\nsamples = 1\nvalue = [1, 0]"] ;
30 -> 31 ;
32 [label="entropy = 0.0\nsamples = 3\nvalue = [0, 3]"] ;
30 -> 32 ;
33 [label="entropy = 0.0\nsamples = 10\nvalue = [0, 10]"] ;
27 -> 33 ;
34 [label="entropy = 0.0\nsamples = 19\nvalue = [0, 19]"] ;
24 -> 34 ;
}