digraph Tree {
node [shape=box] ;
0 [label="X[0] <= 0.697\nentropy = 0.782\nsamples = 181\nvalue = [139, 42]"] ;
1 [label="X[0] <= -0.804\nentropy = 0.371\nsamples = 140\nvalue = [130, 10]"] ;
0 -> 1 [labeldistance=2.5, labelangle=45, headlabel="True"] ;
2 [label="entropy = 0.0\nsamples = 37\nvalue = [37, 0]"] ;
1 -> 2 ;
3 [label="X[0] <= -0.725\nentropy = 0.46\nsamples = 103\nvalue = [93, 10]"] ;
1 -> 3 ;
4 [label="entropy = 0.0\nsamples = 1\nvalue = [0, 1]"] ;
3 -> 4 ;
5 [label="X[0] <= -0.33\nentropy = 0.431\nsamples = 102\nvalue = [93, 9]"] ;
3 -> 5 ;
6 [label="entropy = 0.0\nsamples = 25\nvalue = [25, 0]"] ;
5 -> 6 ;
7 [label="X[0] <= 0.144\nentropy = 0.52\nsamples = 77\nvalue = [68, 9]"] ;
5 -> 7 ;
8 [label="X[0] <= -0.172\nentropy = 0.378\nsamples = 41\nvalue = [38, 3]"] ;
7 -> 8 ;
9 [label="X[0] <= -0.251\nentropy = 0.722\nsamples = 15\nvalue = [12, 3]"] ;
8 -> 9 ;
10 [label="entropy = 0.544\nsamples = 8\nvalue = [7, 1]"] ;
9 -> 10 ;
11 [label="entropy = 0.863\nsamples = 7\nvalue = [5, 2]"] ;
9 -> 11 ;
12 [label="entropy = 0.0\nsamples = 26\nvalue = [26, 0]"] ;
8 -> 12 ;
13 [label="X[0] <= 0.618\nentropy = 0.65\nsamples = 36\nvalue = [30, 6]"] ;
7 -> 13 ;
14 [label="X[0] <= 0.46\nentropy = 0.614\nsamples = 33\nvalue = [28, 5]"] ;
13 -> 14 ;
15 [label="X[0] <= 0.302\nentropy = 0.65\nsamples = 24\nvalue = [20, 4]"] ;
14 -> 15 ;
16 [label="X[0] <= 0.223\nentropy = 0.567\nsamples = 15\nvalue = [13, 2]"] ;
15 -> 16 ;
17 [label="entropy = 0.544\nsamples = 8\nvalue = [7, 1]"] ;
16 -> 17 ;
18 [label="entropy = 0.592\nsamples = 7\nvalue = [6, 1]"] ;
16 -> 18 ;
19 [label="X[0] <= 0.381\nentropy = 0.764\nsamples = 9\nvalue = [7, 2]"] ;
15 -> 19 ;
20 [label="entropy = 0.722\nsamples = 5\nvalue = [4, 1]"] ;
19 -> 20 ;
21 [label="entropy = 0.811\nsamples = 4\nvalue = [3, 1]"] ;
19 -> 21 ;
22 [label="X[0] <= 0.539\nentropy = 0.503\nsamples = 9\nvalue = [8, 1]"] ;
14 -> 22 ;
23 [label="entropy = 0.0\nsamples = 3\nvalue = [3, 0]"] ;
22 -> 23 ;
24 [label="entropy = 0.65\nsamples = 6\nvalue = [5, 1]"] ;
22 -> 24 ;
25 [label="entropy = 0.918\nsamples = 3\nvalue = [2, 1]"] ;
13 -> 25 ;
26 [label="X[0] <= 1.407\nentropy = 0.759\nsamples = 41\nvalue = [9, 32]"] ;
0 -> 26 [labeldistance=2.5, labelangle=-45, headlabel="False"] ;
27 [label="X[0] <= 0.776\nentropy = 0.976\nsamples = 22\nvalue = [9, 13]"] ;
26 -> 27 ;
28 [label="entropy = 0.0\nsamples = 1\nvalue = [0, 1]"] ;
27 -> 28 ;
29 [label="X[0] <= 0.855\nentropy = 0.985\nsamples = 21\nvalue = [9, 12]"] ;
27 -> 29 ;
30 [label="entropy = 0.811\nsamples = 4\nvalue = [3, 1]"] ;
29 -> 30 ;
31 [label="X[0] <= 0.934\nentropy = 0.937\nsamples = 17\nvalue = [6, 11]"] ;
29 -> 31 ;
32 [label="entropy = 0.0\nsamples = 1\nvalue = [0, 1]"] ;
31 -> 32 ;
33 [label="X[0] <= 1.171\nentropy = 0.954\nsamples = 16\nvalue = [6, 10]"] ;
31 -> 33 ;
34 [label="X[0] <= 1.013\nentropy = 0.991\nsamples = 9\nvalue = [4, 5]"] ;
33 -> 34 ;
35 [label="entropy = 1.0\nsamples = 4\nvalue = [2, 2]"] ;
34 -> 35 ;
36 [label="X[0] <= 1.092\nentropy = 0.971\nsamples = 5\nvalue = [2, 3]"] ;
34 -> 36 ;
37 [label="entropy = 0.0\nsamples = 1\nvalue = [0, 1]"] ;
36 -> 37 ;
38 [label="entropy = 1.0\nsamples = 4\nvalue = [2, 2]"] ;
36 -> 38 ;
39 [label="X[0] <= 1.329\nentropy = 0.863\nsamples = 7\nvalue = [2, 5]"] ;
33 -> 39 ;
40 [label="X[0] <= 1.25\nentropy = 0.722\nsamples = 5\nvalue = [1, 4]"] ;
39 -> 40 ;
41 [label="entropy = 0.918\nsamples = 3\nvalue = [1, 2]"] ;
40 -> 41 ;
42 [label="entropy = 0.0\nsamples = 2\nvalue = [0, 2]"] ;
40 -> 42 ;
43 [label="entropy = 1.0\nsamples = 2\nvalue = [1, 1]"] ;
39 -> 43 ;
44 [label="entropy = 0.0\nsamples = 19\nvalue = [0, 19]"] ;
26 -> 44 ;
}