digraph Tree {
node [shape=box] ;
0 [label="X[0] <= 39.5\nentropy = 0.782\nsamples = 181\nvalue = [139, 42]"] ;
1 [label="X[1] <= 20.5\nentropy = 0.371\nsamples = 140\nvalue = [130, 10]"] ;
0 -> 1 [labeldistance=2.5, labelangle=45, headlabel="True"] ;
2 [label="X[1] <= 13.5\nentropy = 0.23\nsamples = 134\nvalue = [129, 5]"] ;
1 -> 2 ;
3 [label="X[0] <= 27.5\nentropy = 0.125\nsamples = 117\nvalue = [115, 2]"] ;
2 -> 3 ;
4 [label="entropy = 0.0\nsamples = 66\nvalue = [66, 0]"] ;
3 -> 4 ;
5 [label="X[1] <= 5.5\nentropy = 0.239\nsamples = 51\nvalue = [49, 2]"] ;
3 -> 5 ;
6 [label="X[0] <= 28.5\nentropy = 0.345\nsamples = 31\nvalue = [29, 2]"] ;
5 -> 6 ;
7 [label="X[1] <= 1.0\nentropy = 1.0\nsamples = 2\nvalue = [1, 1]"] ;
6 -> 7 ;
8 [label="entropy = 0.0\nsamples = 1\nvalue = [1, 0]"] ;
7 -> 8 ;
9 [label="entropy = 0.0\nsamples = 1\nvalue = [0, 1]"] ;
7 -> 9 ;
10 [label="X[1] <= 4.5\nentropy = 0.216\nsamples = 29\nvalue = [28, 1]"] ;
6 -> 10 ;
11 [label="entropy = 0.0\nsamples = 26\nvalue = [26, 0]"] ;
10 -> 11 ;
12 [label="X[0] <= 36.5\nentropy = 0.918\nsamples = 3\nvalue = [2, 1]"] ;
10 -> 12 ;
13 [label="entropy = 0.0\nsamples = 1\nvalue = [0, 1]"] ;
12 -> 13 ;
14 [label="entropy = 0.0\nsamples = 2\nvalue = [2, 0]"] ;
12 -> 14 ;
15 [label="entropy = 0.0\nsamples = 20\nvalue = [20, 0]"] ;
5 -> 15 ;
16 [label="X[0] <= 28.5\nentropy = 0.672\nsamples = 17\nvalue = [14, 3]"] ;
2 -> 16 ;
17 [label="X[1] <= 14.5\nentropy = 1.0\nsamples = 6\nvalue = [3, 3]"] ;
16 -> 17 ;
18 [label="entropy = 0.0\nsamples = 1\nvalue = [0, 1]"] ;
17 -> 18 ;
19 [label="X[0] <= 21.5\nentropy = 0.971\nsamples = 5\nvalue = [3, 2]"] ;
17 -> 19 ;
20 [label="entropy = 0.0\nsamples = 1\nvalue = [0, 1]"] ;
19 -> 20 ;
21 [label="X[1] <= 16.0\nentropy = 0.811\nsamples = 4\nvalue = [3, 1]"] ;
19 -> 21 ;
22 [label="entropy = 1.0\nsamples = 2\nvalue = [1, 1]"] ;
21 -> 22 ;
23 [label="entropy = 0.0\nsamples = 2\nvalue = [2, 0]"] ;
21 -> 23 ;
24 [label="entropy = 0.0\nsamples = 11\nvalue = [11, 0]"] ;
16 -> 24 ;
25 [label="X[1] <= 25.0\nentropy = 0.65\nsamples = 6\nvalue = [1, 5]"] ;
1 -> 25 ;
26 [label="entropy = 0.0\nsamples = 3\nvalue = [0, 3]"] ;
25 -> 26 ;
27 [label="X[1] <= 28.0\nentropy = 0.918\nsamples = 3\nvalue = [1, 2]"] ;
25 -> 27 ;
28 [label="entropy = 0.0\nsamples = 1\nvalue = [1, 0]"] ;
27 -> 28 ;
29 [label="entropy = 0.0\nsamples = 2\nvalue = [0, 2]"] ;
27 -> 29 ;
30 [label="X[0] <= 48.5\nentropy = 0.759\nsamples = 41\nvalue = [9, 32]"] ;
0 -> 30 [labeldistance=2.5, labelangle=-45, headlabel="False"] ;
31 [label="X[1] <= 9.5\nentropy = 0.976\nsamples = 22\nvalue = [9, 13]"] ;
30 -> 31 ;
32 [label="X[1] <= 1.5\nentropy = 0.845\nsamples = 11\nvalue = [8, 3]"] ;
31 -> 32 ;
33 [label="entropy = 0.0\nsamples = 4\nvalue = [4, 0]"] ;
32 -> 33 ;
34 [label="X[1] <= 8.0\nentropy = 0.985\nsamples = 7\nvalue = [4, 3]"] ;
32 -> 34 ;
35 [label="X[0] <= 43.5\nentropy = 1.0\nsamples = 6\nvalue = [3, 3]"] ;
34 -> 35 ;
36 [label="X[1] <= 3.5\nentropy = 0.811\nsamples = 4\nvalue = [3, 1]"] ;
35 -> 36 ;
37 [label="entropy = 0.0\nsamples = 2\nvalue = [2, 0]"] ;
36 -> 37 ;
38 [label="X[0] <= 42.0\nentropy = 1.0\nsamples = 2\nvalue = [1, 1]"] ;
36 -> 38 ;
39 [label="entropy = 0.0\nsamples = 1\nvalue = [1, 0]"] ;
38 -> 39 ;
40 [label="entropy = 0.0\nsamples = 1\nvalue = [0, 1]"] ;
38 -> 40 ;
41 [label="entropy = 0.0\nsamples = 2\nvalue = [0, 2]"] ;
35 -> 41 ;
42 [label="entropy = 0.0\nsamples = 1\nvalue = [1, 0]"] ;
34 -> 42 ;
43 [label="X[0] <= 45.5\nentropy = 0.439\nsamples = 11\nvalue = [1, 10]"] ;
31 -> 43 ;
44 [label="X[0] <= 44.0\nentropy = 0.65\nsamples = 6\nvalue = [1, 5]"] ;
43 -> 44 ;
45 [label="entropy = 0.0\nsamples = 4\nvalue = [0, 4]"] ;
44 -> 45 ;
46 [label="X[1] <= 28.5\nentropy = 1.0\nsamples = 2\nvalue = [1, 1]"] ;
44 -> 46 ;
47 [label="entropy = 0.0\nsamples = 1\nvalue = [1, 0]"] ;
46 -> 47 ;
48 [label="entropy = 0.0\nsamples = 1\nvalue = [0, 1]"] ;
46 -> 48 ;
49 [label="entropy = 0.0\nsamples = 5\nvalue = [0, 5]"] ;
43 -> 49 ;
50 [label="entropy = 0.0\nsamples = 19\nvalue = [0, 19]"] ;
30 -> 50 ;
}