digraph Tree {
node [shape=box] ;
0 [label="X[0] <= 0.697\nentropy = 0.782\nsamples = 181\nvalue = [139, 42]"] ;
1 [label="X[1] <= 0.822\nentropy = 0.371\nsamples = 140\nvalue = [130, 10]"] ;
0 -> 1 [labeldistance=2.5, labelangle=45, headlabel="True"] ;
2 [label="X[1] <= 0.276\nentropy = 0.23\nsamples = 134\nvalue = [129, 5]"] ;
1 -> 2 ;
3 [label="X[7] <= 2.078\nentropy = 0.125\nsamples = 117\nvalue = [115, 2]"] ;
2 -> 3 ;
4 [label="X[4] <= -0.17\nentropy = 0.072\nsamples = 115\nvalue = [114, 1]"] ;
3 -> 4 ;
5 [label="X[4] <= -0.17\nentropy = 0.592\nsamples = 7\nvalue = [6, 1]"] ;
4 -> 5 ;
6 [label="entropy = 0.0\nsamples = 6\nvalue = [6, 0]"] ;
5 -> 6 ;
7 [label="entropy = 0.0\nsamples = 1\nvalue = [0, 1]"] ;
5 -> 7 ;
8 [label="entropy = 0.0\nsamples = 108\nvalue = [108, 0]"] ;
4 -> 8 ;
9 [label="X[1] <= -0.464\nentropy = 1.0\nsamples = 2\nvalue = [1, 1]"] ;
3 -> 9 ;
10 [label="entropy = 0.0\nsamples = 1\nvalue = [1, 0]"] ;
9 -> 10 ;
11 [label="entropy = 0.0\nsamples = 1\nvalue = [0, 1]"] ;
9 -> 11 ;
12 [label="X[0] <= -0.172\nentropy = 0.672\nsamples = 17\nvalue = [14, 3]"] ;
2 -> 12 ;
13 [label="X[5] <= -0.162\nentropy = 1.0\nsamples = 6\nvalue = [3, 3]"] ;
12 -> 13 ;
14 [label="X[4] <= -0.161\nentropy = 0.811\nsamples = 4\nvalue = [3, 1]"] ;
13 -> 14 ;
15 [label="entropy = 0.0\nsamples = 3\nvalue = [3, 0]"] ;
14 -> 15 ;
16 [label="entropy = 0.0\nsamples = 1\nvalue = [0, 1]"] ;
14 -> 16 ;
17 [label="entropy = 0.0\nsamples = 2\nvalue = [0, 2]"] ;
13 -> 17 ;
18 [label="entropy = 0.0\nsamples = 11\nvalue = [11, 0]"] ;
12 -> 18 ;
19 [label="X[5] <= -0.161\nentropy = 0.65\nsamples = 6\nvalue = [1, 5]"] ;
1 -> 19 ;
20 [label="entropy = 0.0\nsamples = 4\nvalue = [0, 4]"] ;
19 -> 20 ;
21 [label="X[5] <= -0.16\nentropy = 1.0\nsamples = 2\nvalue = [1, 1]"] ;
19 -> 21 ;
22 [label="entropy = 0.0\nsamples = 1\nvalue = [1, 0]"] ;
21 -> 22 ;
23 [label="entropy = 0.0\nsamples = 1\nvalue = [0, 1]"] ;
21 -> 23 ;
24 [label="X[0] <= 1.407\nentropy = 0.759\nsamples = 41\nvalue = [9, 32]"] ;
0 -> 24 [labeldistance=2.5, labelangle=-45, headlabel="False"] ;
25 [label="X[7] <= -0.337\nentropy = 0.976\nsamples = 22\nvalue = [9, 13]"] ;
24 -> 25 ;
26 [label="entropy = 0.0\nsamples = 6\nvalue = [6, 0]"] ;
25 -> 26 ;
27 [label="X[1] <= -0.036\nentropy = 0.696\nsamples = 16\nvalue = [3, 13]"] ;
25 -> 27 ;
28 [label="X[5] <= -0.168\nentropy = 1.0\nsamples = 6\nvalue = [3, 3]"] ;
27 -> 28 ;
29 [label="entropy = 0.0\nsamples = 2\nvalue = [0, 2]"] ;
28 -> 29 ;
30 [label="X[7] <= 2.104\nentropy = 0.811\nsamples = 4\nvalue = [3, 1]"] ;
28 -> 30 ;
31 [label="entropy = 0.0\nsamples = 3\nvalue = [3, 0]"] ;
30 -> 31 ;
32 [label="entropy = 0.0\nsamples = 1\nvalue = [0, 1]"] ;
30 -> 32 ;
33 [label="entropy = 0.0\nsamples = 10\nvalue = [0, 10]"] ;
27 -> 33 ;
34 [label="entropy = 0.0\nsamples = 19\nvalue = [0, 19]"] ;
24 -> 34 ;
}