digraph Tree {
node [shape=box] ;
0 [label="X[0] <= 39.5\nentropy = 0.782\nsamples = 181\nvalue = [139, 42]"] ;
1 [label="X[2] <= 20.5\nentropy = 0.371\nsamples = 140\nvalue = [130, 10]"] ;
0 -> 1 [labeldistance=2.5, labelangle=45, headlabel="True"] ;
2 [label="X[1] <= 4.5\nentropy = 0.23\nsamples = 134\nvalue = [129, 5]"] ;
1 -> 2 ;
3 [label="entropy = 0.0\nsamples = 73\nvalue = [73, 0]"] ;
2 -> 3 ;
4 [label="X[0] <= 20.5\nentropy = 0.409\nsamples = 61\nvalue = [56, 5]"] ;
2 -> 4 ;
5 [label="entropy = 0.0\nsamples = 26\nvalue = [26, 0]"] ;
4 -> 5 ;
6 [label="X[4] <= 7.5\nentropy = 0.592\nsamples = 35\nvalue = [30, 5]"] ;
4 -> 6 ;
7 [label="X[12] <= 0.213\nentropy = 0.449\nsamples = 32\nvalue = [29, 3]"] ;
6 -> 7 ;
8 [label="entropy = 0.0\nsamples = 22\nvalue = [22, 0]"] ;
7 -> 8 ;
9 [label="X[11] <= 0.758\nentropy = 0.881\nsamples = 10\nvalue = [7, 3]"] ;
7 -> 9 ;
10 [label="entropy = 0.0\nsamples = 2\nvalue = [0, 2]"] ;
9 -> 10 ;
11 [label="X[3] <= 10.0\nentropy = 0.544\nsamples = 8\nvalue = [7, 1]"] ;
9 -> 11 ;
12 [label="entropy = 0.0\nsamples = 7\nvalue = [7, 0]"] ;
11 -> 12 ;
13 [label="entropy = 0.0\nsamples = 1\nvalue = [0, 1]"] ;
11 -> 13 ;
14 [label="X[0] <= 31.5\nentropy = 0.918\nsamples = 3\nvalue = [1, 2]"] ;
6 -> 14 ;
15 [label="entropy = 0.0\nsamples = 2\nvalue = [0, 2]"] ;
14 -> 15 ;
16 [label="entropy = 0.0\nsamples = 1\nvalue = [1, 0]"] ;
14 -> 16 ;
17 [label="X[5] <= 1.027\nentropy = 0.65\nsamples = 6\nvalue = [1, 5]"] ;
1 -> 17 ;
18 [label="entropy = 0.0\nsamples = 5\nvalue = [0, 5]"] ;
17 -> 18 ;
19 [label="entropy = 0.0\nsamples = 1\nvalue = [1, 0]"] ;
17 -> 19 ;
20 [label="X[6] <= 1.541\nentropy = 0.759\nsamples = 41\nvalue = [9, 32]"] ;
0 -> 20 [labeldistance=2.5, labelangle=-45, headlabel="False"] ;
21 [label="X[6] <= 0.259\nentropy = 0.229\nsamples = 27\nvalue = [1, 26]"] ;
20 -> 21 ;
22 [label="X[4] <= 8.0\nentropy = 1.0\nsamples = 2\nvalue = [1, 1]"] ;
21 -> 22 ;
23 [label="entropy = 0.0\nsamples = 1\nvalue = [1, 0]"] ;
22 -> 23 ;
24 [label="entropy = 0.0\nsamples = 1\nvalue = [0, 1]"] ;
22 -> 24 ;
25 [label="entropy = 0.0\nsamples = 25\nvalue = [0, 25]"] ;
21 -> 25 ;
26 [label="X[0] <= 48.5\nentropy = 0.985\nsamples = 14\nvalue = [8, 6]"] ;
20 -> 26 ;
27 [label="X[11] <= 10.562\nentropy = 0.722\nsamples = 10\nvalue = [8, 2]"] ;
26 -> 27 ;
28 [label="X[10] <= 0.01\nentropy = 0.503\nsamples = 9\nvalue = [8, 1]"] ;
27 -> 28 ;
29 [label="X[12] <= 0.067\nentropy = 1.0\nsamples = 2\nvalue = [1, 1]"] ;
28 -> 29 ;
30 [label="entropy = 0.0\nsamples = 1\nvalue = [1, 0]"] ;
29 -> 30 ;
31 [label="entropy = 0.0\nsamples = 1\nvalue = [0, 1]"] ;
29 -> 31 ;
32 [label="entropy = 0.0\nsamples = 7\nvalue = [7, 0]"] ;
28 -> 32 ;
33 [label="entropy = 0.0\nsamples = 1\nvalue = [0, 1]"] ;
27 -> 33 ;
34 [label="entropy = 0.0\nsamples = 4\nvalue = [0, 4]"] ;
26 -> 34 ;
}